0.215755 0.541227 0.261271 -0.0895766 0.728774 -0.0115575 0.689425 0.559364 0.496528 0.566699 -0.342498 0.306577 0.779553 0.178605 0.391749 0.853632 0.88468 0.216163 0.286007 0.35913 0.715755 -0.0887727 -0.0587287 0.440423 0.958774 0.568443 0.119425 0.139364 0.0565284 0.876699 0.0775021 0.116577 0.679553 0.288605 0.471749 0.0636316 0.60468 0.786163 0.366007 0.93913 -0.164245 -0.0187727 0.141271 0.240423 0.768774 0.388443 0.319425 0.0893645 0.406528 0.606699 0.0775021 0.296577 0.589553 0.478605 0.151749 0.533632 0.16468 0.206163 0.306007 0.77913 -0.0342449 0.221227 0.821271 0.330423 0.918774 -0.191557 0.309425 0.399364 0.516528 0.406699 0.0675021 -0.0934227 0.869553 0.198605 0.481749 0.443632 -0.00531999 -0.193837 0.946007 0.47913 0.0957551 0.101227 0.761271 0.450423 0.598774 0.148443 0.569425 0.739364 0.186528 0.00669852 0.0475021 0.246577 0.229553 0.138605 0.151749 0.323632 0.11468 0.616163 0.306007 0.40913 0.33 0.15 0.39 0.58 0.04 0.3 0.77 0.06 0.73 0.86 0.21 0.45 0.24 0.72 0.7 0.29 0.77 0.73 0.97 0.12 0.86 0.9 0.61 0.36 0.55 0.67 0.55 0.74 0.31 0.52 0.5 0.5 0.41 0.24 0.66 0.3 0.07 0.91 0.07 0.37 0.57 0.87 0.53 0.83 0.45 0.09 0.09 0.58 0.21 0.88 0.22 0.46 0.06 0.3 0.13 0.68 0 0.91 0.62 0.55 0.1 0.59 0.24 0.37 0.48 0.83 0.95 0.41 0.02 0.5 0.91 0.36 0.74 0.2 0.96 0.21 0.48 0.99 0.68 0.84 0.81 0.34 0.53 0.99 0.18 0.38 0 0.88 0.27 0.67 0.28 0.93 0.48 0.83 0.07 0.21 0.1 0.17 0.13 0.14 0.09 0.16 0.35 0.51 0 0.49 0.19 0.56 0.98 0.03 0.24 0.08 0.44 0.09 0.89 0.02 0.95 0.85 0.93 0.43 0.23 0.87 0.14 0.03 0.48 0 0.58 0.18 0.8 0.96 0.98 0.81 0.89 0.98 0.09 0.57 0.72 0.22 0.38 0.92 0.38 0.79 0.9 0.57 0.58 0.91 0.15 0.88 0.56 0.11 0.02 0.34 0.72 0.55 0.28 0.46 0.62 0.86 0.75 0.33 0.69 0.42 0.44 0.16 0.81 0.98 0.22 0.51 0.21 0.99 0.57 0.76 0.92 0.89 0.75 0.12 0 0.1 0.03 0.69 0.61 0.88 0.01 0.89 0.55 0.23 0.02 0.85 0.82 0.85 0.88 0.26 0.17 0.57 0.32 0.32 0.69 0.54 0.21 0.89 0.76 0.29 0.68 0.92 0.25 0.55 0.34 0.49 0.41 0.12 0.45 0.6 0.18 0.53 0.39 0.23 0.79 0.96 0.87 0.29 0.49 0.37 0.66 0.49 0.93 0.95 0.97 0.16 0.86 0.05 0.88 0.82 0.55 0.34 0.14 0.01 0.16 0.71 0.86 0.63 0.13 0.55 0.85 0.53 0.12 0.08 0.32 0.45 0.13 0.56 0.21 0.58 0.46 0.82 0.81 0.44 0.96 0.22 0.29 0.61 0.35 0.5 0.73 0.66 0.44 0.59 0.92 0.39 0.53 0.24 0.54 0.1 0.45 0.49 0.86 0.13 0.74 0.22 0.68 0.18 0.87 0.05 0.58 0.91 0.02 0.25 0.77 0.14 0.14 0.24 0.34 0.74 0.72 0.59 0.33 0.7 0.87 0.97 0.18 0.77 0.765708 1.08301 0.503098 0.753848 0.823534 0.687873 -0.241605 0.113021 -0.0699578 -0.201707 -0.0296599 0.383618 0.101 -0.0568127 0.330045 -0.295176 0.17008 0.55998 0.504436 0.505885 0.0758486 0.778377 -0.113496 1.01276 0.121227 0.152231 0.626371 -0.340947 0.00485704 0.329419 0.592286 -0.695269 0.658531 0.275944 0.019936 0.174267 0.638737 0.530816 0.229714 -0.0579999 0.123888 0.861766 0.825711 0.756955 0.771834 0.324047 0.0938108 0.259664 0.721022 -0.238416 0.13583 -0.370371 0.568494 0.60378 0.465127 -0.539979 0.641678 0.484356 0.65512 0.655763 0.555051 1.29101 0.0161233 0.695503 0.0620015 0.350998 -0.300585 0.133304 0.396498 -0.18976 0.0482238 -0.120298 0.488922 -0.133014 0.644925 -0.279137 0.395226 0.437618 0.512216 -0.294576 0.861204 1.29929 0.485692 0.959922 0.642228 0.556635 -0.0679845 -0.539556 0.0531227 -0.283896 0.174167 -0.527982 -0.195038 0.259912 0.111089 0.339212 0.299342 0.42186 0.820306 -0.12791 0.644802 0.659404 0.00108528 0.168021 0.285817 0.139409 0.0616148 0.544793 0.066977 0.384129 0.485438 0.0803785 0.872598 0.169527 0.861192 0.472072 0.386935 0.474288 0.602214 0.245743 0.000267546 0.20082 0.576371 0.855099 0.645883 -0.0981368 0.613194 -0.486028 0.386217 0.0612776 -0.0229799 0.242278 0.550952 -0.0437193 0.67477 -0.388531 0.0668825 0.721794 -0.0366299 0.489568 0.601284 0.300577 0.930631 0.829972 0.0499416 0.243838 0.103266 -0.105075 0.338947 0.558218 0.669069 0.458018 0.228074 0.839537 0.559064 -0.0758738 0.258864 0.567891 0.259858 0.569695 0.373689 0.788055 0.681185 0.655564 0.951363 0.0545244 0.0925657 -0.334226 0.043342 0.699154 0.797537 0.175962 0.208292 0.0329367 0.244064 0.202983 0.534057 0.187511 0.946551 0.523916 0.531976 0.666024 0.842204 0.302789 0.539348 0.548534 0.530406 0.247348 0.245256 0.446556 0.0153977 0.695644 0.102364 0.0998552 0.659167 0.0293845 0.694364 0.253327 0.227021 0.417428 0.552784 0.275452 0.352413 0.785958 0.548272 0.110236 0.0612551 0.259908 0.131809 0.0725762 0.00378146 0.491242 0.418399 0.771396 0.728356 -0.372604 0.890166 0.233029 0.313548 0.208866 0.561553 0.96667 0.762164 0.035429 0.619783 0.322829 0.779493 -0.350147 0.0684651 0.279661 0.499282 0.438758 0.414819 0.434596 0.0991184 0.403301 0.204933 0.687771 0.51875 0.429176 0.971485 0.989318 0.274817 0.218521 0.688909 0.540903 -0.13164 -0.575141 -0.063257 -0.156327 0.0647659 0.331824 0.503219 -0.0305306 0.282997 0.315811 0.780406 0.722068 0.842931 0.629658 0.902057 0.475633 0.530322 0.0928209 0.509016 0.24417 0.423457 0.261306 0.325371 0.570838 0.869377 -0.0177971 0.635224 0.694532 0.0262771 -0.0541985 0.744618 0.033282 0.918111 0.966688 0.504153 0.75998 0.546541 0.352064 0.623562 0.239577 0.101538 -0.184706 -0.066747 0.338472 -0.0430495 0.309868 0.0570689 0.526219 0.02941 0.408261 0.175194 -0.148522 0.856349 0.44338 0.701103 0.299471 0.270434 0.837155 0.749903 0.701337 0.97407 0.605945 0.860432 0.468038 -0.0116005 -0.0097775 0.208228 0.625946 0.0591049 0.455906 0.09881 0.708198 0.889784 0.399594 0.671232 0.756835 0.0753828 0.183064 0.821268 -0.131182 -0.0586155 -0.363866 0.310218 -0.396605 0.697317 -0.169551 -0.123495 -0.0949511 0.888868 -0.079084 0.777556 0.316398 0.615788 0.368476 0.140156 0.900294 0.403565 0.145243 0.426852 0.606289 0.541648 0.0805299 0.0457345 0.555 0.835366 0.0935266 0.578974 0.12475 0.387928 -0.411297 0.128305 0.559957 -0.0417249 0.122871 0.343935 1.01533 0.425371 0.955693 0.628749 0.455834 -0.271298 -0.643135 0.0044047 -0.202247 -0.0536697 0.0931203 0.0178373 0.32201 0.166628 -0.12317 0.402822 0.70833 0.315134 0.14906 -0.00112107 0.177261 -0.101974 0.087389 -0.0382326 -0.17503 -0.307997 -0.611831 -0.229923 -0.435071 -0.0542797 -0.5663 0.295909 0.571402 0.374591 -0.103864 0.23154 0.028367 0.354303 0.466927 0.451755 -29.4982 -0.532148 -0.525041 -0.0181971 -9.51663 -0.579295 0.0863976 -1.05228 -14.8468 -0.980362 0.394374 -0.447751 -5.49908 -0.837279 0.253004 -0.879186 -27.3058 -1.01416 -0.00212967 -0.94799 -4.16784 -0.257224 0.67264 -0.505254 -23.9881 -0.549238 -0.303357 -0.276531 -14.9938 -0.720096 0.157148 -0.825195 -20.5562 -0.954705 -0.49635 0.0519909 -12.1193 -1.02824 -0.327879 -0.643491 -23.404 -0.337242 0.640418 -0.0573626 -16.2894 -0.480176 -0.181748 -0.834175 -25.7843 -0.724255 0.042435 -0.516789 -10.4907 -0.231622 0.268431 -1.25898 -24.3019 -0.852831 -0.229015 -0.713761 -11.681 -0.594106 0.712139 0.413204 -13.8564 -0.173953 1.76182e-06 0.208351 -3.60427 -0.660249 0.0108863 -1.19898 -21.508 -0.559203 -0.274523 -0.968401 -7.76278 -0.962038 0.339727 -0.543737 -18.1702 -0.798187 -0.535482 -0.675876 -10.2327 -0.928027 0.189027 -0.692647 -21.5571 -0.198164 -0.134879 -0.673731 -5.78449 -1.14516 0.505326 -0.235593 -14.6855 -0.989057 0.243061 0.965817 0.277587 0.0833855 -17.2124 0.0142797 -0.347499 -0.938015 -11.812 -0.827549 0.450317 -0.34907 -19.1518 -0.779317 -0.21916 -0.43969 -8.1577 -0.520137 0.303091 -0.958354 -25.2425 -0.525278 -0.336242 0.354161 -8.94918 -1.00802 0.194949 -0.713283 -18.3123 -0.259348 -0.270253 -0.90411 -3.48058 -0.56329 0.399413 -0.97566 -21.0858 -0.196477 0.512891 -0.359554 -6.0095 -0.0459921 0.141145 -0.779789 -28.4786 -0.0394725 -0.413467 -0.396239 -4.41757 -0.804418 0.485476 -0.282638 -23.0895 0.117798 -0.0642808 -0.0495462 -12.324 -0.489582 -0.0609242 -0.564838 -19.7005 -0.668262 0.188098 -0.714472 -11.4228 0.321879 0.211123 0.0989637 -19.4712 -0.0492112 0.309828 -0.570039 -3.3741 -0.773321 0.333361 -0.517528 -9.97821 -0.664092 0.297373 -0.0842955 -13.6704 -0.157169 0.688023 -0.0748191 -15.9799 -0.300754 0.138909 -0.247034 -6.48605 -0.0490001 0.0672281 0.179712 -14.9551 -0.687849 0.355913 -0.959116 -10.9943 0.305576 0.31028 -0.718698 -16.4196 0.688839 -10.1446 0.590331 -0.139582 0.0333502 -26.2006 -0.253512 -0.0436099 -0.613372 -11.4492 -0.229499 0.674372 0.501863 -17.7399 -0.446864 0.563052 -0.487709 -16.2454 -0.533845 0.398521 -0.900332 -20.3511 -0.116673 0.442783 -0.619659 -10.6577 -0.425201 -0.100884 -0.119913 -20.3303 -0.494617 -0.0369751 -0.627243 -4.92189 -0.754798 -0.484977 0.706696 -20.7297 -0.291363 -0.0773151 -0.0624386 -3.64893 0.246597 0.270229 0.789166 -19.1891 0.804595 -0.0656888 -0.219129 -13.2588 -0.454027 0.00240882 0.730226 -15.5163 0.000707939 -0.141576 -0.540772 -10.2532 -0.58565 -0.59901 0.606701 -18.8409 0.376572 0.641964 0.289253 -12.7228 -0.0106498 0.336448 0.429992 -17.2287 0.537538 0.477023 -0.258216 -3.91424 0.316775 -0.543932 -0.306249 -13.7218 -0.164167 0.0296918 0.173193 -13.289 -0.237455 -0.594418 0.883225 -26.0611 0.695659 -0.608407 0.568872 -11.7217 0.422313 -0.198061 -0.155718 -23.9213 -0.65118 0.495319 0.524223 -4.91196 -0.186256 0.620334 0.18026 0.767547 0.272079 -9.6694 0.148652 -0.247483 0.454225 -20.3289 0.530144 0.0842365 -0.429388 -7.19498 0.582705 0.0688147 0.535417 0.253536 0.433264 0.431393 0.549774 0.535592 0.302588 -0.00588289 0.125807 0.174898 0.372659 0.504499 0.286999 0.376701 0.740486 -0.460988 0.193063 0.0705811 0.0856586 -0.186698 -0.333112 0.647775 0.0397118 0.462518 0.535644 0.244287 0.600862 -0.257427 0.450385 0.434034 0.297436 -0.333587 0.495581 -0.249088 -0.397119 -0.294512 0.348501 -0.11751 0.350864 0.628667 0.914436 0.0784247 -0.404 0.429081 0.221395 -0.142044 0.321444 -0.306308 0.355017 -0.0349662 0.366064 -0.416107 0.615984 0.68408 0.0559235 0.114819 0.79011 0.743352 -0.135795 0.266612 0.502538 0.660409 0.0929607 -0.283381 0.940163 0.504387 0.473152 0.238036 0.72131 -0.451029 0.427583 -0.421075 0.392427 0.809292 0.172303 0.472608 0.0478271 0.214549 -0.055784 -0.11266 0.0813735 -0.164353 0.637057 0.178929 0.915315 0.735336 0.121016 -0.202476 0.631904 -0.0559993 0.603073 0.0624842 0.0376741 0.476376 -0.32738 0.0681603 -0.281928 0.0643594 -0.36717 -0.190691 -0.213904 0.493013 -0.660038 0.0107862 -0.0305579 0.657031 -0.158013 0.17403 0.517458 0.352712 -0.920467 0.36448 -0.347341 0.0150388 0.207684 -0.401579 -0.486997 -0.263261 -0.169071 0.354767 -0.833734 0.391483 0.769568 0.322455 -0.33094 0.16253 0.486921 -0.379077 -0.0297066 0.100103 0.0835932 -0.443627 0.34268 0.0828802 -0.712351 -0.244537 -0.632347 -0.24763 0.295592 0.174484 -0.42375 0.578406 -0.829901 0.369068 -0.419948 -0.579106 0.159785 -0.61282 0.200845 0.771853 0.730498 -0.350296 0.276456 0.399153 0.229866 -0.367499 0.357748 -0.269348 -0.645599 0.186651 0.419103 -0.311365 -0.576029 0.275902 -0.477403 0.53966 -0.234371 -0.0519861 0.426513 -0.105393 0.705912 -0.281108 -0.124542 0.246708 0.424811 0.506446 0.24809 -0.343014 -0.281906 0.0538407 -0.216833 0.655296 0.795987 0.339126 -0.396949 -0.0979726 0.260041 0.705552 0.969024 0.113377 0.0279694 -0.197979 0.0738235 0.444796 0.0738704 0.84469 -0.159604 0.175055 0.427206 0.12617 0.00170881 0.4808 0.271411 0.101272 0.493415 0.48927 0.874491 0.521003 0.687516 0.807576 0.636651 0.66261 0.118202 0.921175 0.338559 0.689196 0.718172 0.271657 0.000963584 0.418168 0.749655 0.766727 0.698483 0.0147444 0.634685 0.786473 0.898939 0.192049 0.364854 0.227846 0.78952 0.914705 0.689519 0.258434 -0.132552 0.0541341 0.817858 0.570333 0.25608 0.867634 0.69781 0.256615 0.497153 0.559704 0.103989 0.533207 0.826142 0.854458 0.417352 0.0988112 0.719359 0.259778 0.335426 0.407944 0.175477 0.0211916 0.667216 0.648226 0.350957 0.808152 0.567564 0.48517 0.0919347 0.973839 0.577819 0.607127 0.628393 0.548212 0.0652547 0.704357 0.889538 0.252344 0.647097 0.742864 0.858046 0.859227 0.329465 0.519843 0.287564 0.462772 0.272181 0.917172 0.329483 0.394592 0.658007 0.349303 0.103747 0.787737 0.325593 0.207571 0.785017 -0.267054 0.387764 0.486596 0.134734 0.700661 -0.641506 0.324523 0.414821 -0.0893366 -0.193156 -0.216591 0.029348 0.462775 0.105781 0.449082 -0.626296 -0.0554236 0.857249 -0.28661 -0.624461 0.294694 -0.356615 -0.151249 0.688861 -0.280882 0.800758 -0.69316 0.193808 0.369932 0.220534 -0.274203 0.77071 0.602655 0.0889173 0.0632852 0.35732 0.371596 0.841675 -0.037624 0.813891 -0.183056 0.89969 0.348136 -0.174497 -0.284176 0.496913 -0.136944 0.348945 0.805545 0.779424 0.00867301 -0.344523 -0.160741 0.176361 0.282798 0.0215113 -0.11407 0.719097 0.644195 0.691799 0.10279 0.677153 0.855371 0.143384 0.394811 0.186243 0.312095 0.158909 0.252524 0.726151 -0.0922056 -0.510878 0.346585 0.477684 0.270384 0.157244 0.558176 0.748488 -0.576145 0.657738 -0.450634 0.719025 -0.435181 0.653699 -0.112829 0.948989 0.0857568 -0.520601 -0.51426 -0.205761 0.355663 0.545732 0.414586 0.516266 0.756237 0.161549 0.11786 0.502288 0.182897 0.520729 -0.417387 0.580817 0.756902 0.560155 0.115671 -0.56177 0.794409 0.334711 0.478943 0.929369 0.0257214 0.817423 0.589551 0.351338 0.162346 -0.590326 0.23833 0.389654 0.561011 0.367056 0.0488613 0.522395 -0.0232922 0.18835 0.352961 0.932988 -0.382702 0.726027 0.706964 0.235479 0.552746 0.754999 0.326305 0.0328535 -0.0796374 0.791421 0.457065 0.740561 0.729339 0.517871 0.427163 0.82529 0.0790255 0.290996 -0.314431 0.689628 -0.0249067 0.264275 0.112343 0.654976 0.268489 0.788762 0.519131 -0.301207 -0.141295 0.476996 0.804965 0.416544 0.453398 0.760466 -0.310059 0.262969 0.145181 0.714134 0.378004 0.666461 0.102054 -0.0966151 0.885519 0.887269 0.0620158 -0.154911 0.0424684 0.374799 0.352326 0.338167 0.348138 0.843087 -0.357276 0.607178 0.0190267 0.8053 0.894481 0.777691 0.854809 0.638317 0.0277335 0.0503744 0.139624 0.73399 0.53666 0.768731 -0.0374825 0.086064 0.460534 0.45133 0.497941 0.729174 0.258657 0.478849 -0.0565887 0.254014 0.446804 -0.0181983 0.583316 -0.603524 0.124688 0.92815 0.26191 -0.0932346 0.523762 -0.474779 -0.0951176 0.155998 0.859413 -0.666527 0.325049 0.187599 0.093974 -0.189682 0.2849 -0.265394 -0.140367 0.738696 -0.0202047 0.847613 -0.469528 0.491869 0.337212 -0.170791 -0.0102222 0.121304 0.422847 0.435282 0.393831 0.458196 -0.467592 0.531257 0.0250786 0.813321 -0.0125026 0.960168 -0.520022 -0.14908 -0.183817 0.912844 0.333681 0.176469 0.386749 0.431135 -0.0410622 -0.507157 0.139449 0.038104 0.104885 0.54201 0.393126 0.70884 0.388972 0.211162 -0.314688 0.393212 0.846546 0.491734 -0.252563 0.428865 0.400279 -0.443945 0.221292 0.468218 -0.600808 -0.0665671 0.44726 0.501303 0.411024 0.113456 0.568327 0.577834 -0.2005 0.724235 0.209837 0.468783 0.275792 0.778894 0.687872 0.985207 -0.544529 -0.18904 0.0275175 0.529405 0.0360029 0.80321 -0.363974 0.716445 0.79088 0.471554 0.697564 0.689196 -0.320241 0.696215 -0.227443 0.834057 -0.00357949 0.568527 0.071059 -0.0663371 0.734385 0.0270977 0.370296 0.350439 -0.23661 0.29621 0.151156 0.871236 0.960867 -0.497001 0.474157 0.265368 0.593589 -0.522635 0.654521 0.551938 0.471041 0.145164 -0.461382 0.224007 0.146217 0.584306 -0.453391 -0.417293 0.885572 0.160113 0.722503 0.933339 0.473575 0.83769 0.492091 0.139651 -0.1891 0.698213 -0.433524 0.13402 0.269811 -0.474998 0.405523 0.267323 0.192504 0.83783 0.274909 0.828003 -0.211548 -0.0341609 0.0590988 0.0257469 -0.323687 0.475678 0.244367 0.649867 0.824076 0.839458 -0.294192 0.0738999 0.0164537 0.734668 -0.50789 0.645777 0.085321 -0.549567 -0.53795 0.388331 0.0328001 -0.29439 0.336324 0.512254 0.669778 0.435997 0.648049 0.896836 0.194181 0.857632 0.0789684 0.898376 0.0593052 -0.0212796 0.636576 0.458902 0.0113064 0.24848 -0.585832 0.73784 0.695497 0.238416 -0.273879 0.607648 0.798037 0.720003 0.0588276 0.559684 0.427313 0.929275 0.765459 0.797511 0.678413 0.106729 0.127259 0.315336 0.502071 0.158594 0.788666 0.676512 0.395205 0.305849 0.326322 0.787461 0.629722 0.574648 0.524413 0.35883 0.94946 0.644701 0.737429 0.193786 0.346047 0.799534 0.750122 0.549351 0.236537 0.70621 0.0794932 0.581983 0.558676 0.0192196 0.318046 0.0471619 0.391995 0.749678 0.607264 0.848054 0.619235 0.799892 0.348599 0.969919 0.0170892 0.00829489 0.79141 0.39917 0.757147 0.57824 0.929189 0.399069 0.453476 0.7351 0.727691 0.961116 0.781598 0.348201 0.718028 -0.00141251 0.0693962 0.549768 0.652137 0.407763 0.879236 0.808148 0.677416 0.148592 0.959483 0.236325 0.0894655 0.118767 0.352946 0.531679 0.618863 0.429104 0.418859 0.209309 0.217053 0.117371 0.457193 0.179873 0.660883 0.168533 0.1363 0.499201 0.899795 0.349827 0.567182 0.684923 0.944318 0.0256691 0.399341 0.789864 0.988621 0.0490709 0.909798 0.613318 0.609467 0.480666 -0.066353 0.292036 -0.254786 0.768206 0.218469 0.337277 0.601464 -0.486043 -0.0555065 0.126585 0.0383766 0.29056 -0.00428325 -0.0328064 0.145295 0.499256 0.677653 -0.681363 0.00871699 0.903791 0.588073 -0.427019 0.576623 -0.138244 -0.15562 0.744516 0.295059 0.805558 -0.581787 0.50201 -0.0568688 -0.509051 0.406611 0.798995 0.714454 0.420418 0.406537 0.749744 -0.434197 0.512569 0.0741917 0.849477 0.401356 0.303445 0.304529 -0.325038 0.398299 0.850705 0.429336 0.569954 0.491258 -0.0507413 -0.229376 -0.610775 0.460564 -0.0277734 -0.290821 0.64097 0.0113845 0.927255 0.315969 0.95144 -0.473567 0.328173 0.393071 0.668264 0.0643455 0.220223 0.27926 -0.696087 -0.307323 0.849482 -0.533013 -0.667783 -0.267375 0.893138 0.704372 0.642729 0.469294 -0.0417739 -0.0162025 0.189791 0.122371 0.160263 0.177973 0.0520496 0.771205 0.391905 -0.421746 -0.467137 -0.102877 -0.0788443 0.298871 0.910548 -0.0974255 0.716748 0.783437 0.0945013 0.337605 0.0682868 -0.705009 0.319511 -0.167379 0.0117851 0.69646 -0.325178 0.299189 -0.817406 0.0344078 0.0172937 0.369619 -0.557897 0.513138 -0.371383 -0.178765 -0.468702 0.698745 -0.638046 -0.00572923 0.76841 0.162941 -0.778337 -0.0254367 -0.345617 0.172176 0.107391 0.0186815 -0.132831 0.25912 -0.659607 -0.234278 -0.564328 -0.473534 0.291444 0.562532 -0.403284 0.34284 0.778743 0.0511132 -0.172333 0.320689 0.482669 -0.503418 0.733702 0.164967 0.0738475 -0.204423 -0.0371569 -0.157381 0.705448 0.624742 0.553109 0.548496 -0.223127 0.149126 -0.529478 -0.458808 0.100585 -0.330489 -0.0505709 0.622483 0.298175 0.240995 0.409037 0.629624 0.472313 -0.566704 0.682807 -0.159573 -0.485214 0.228119 0.553909 -0.680395 0.0900941 0.19616 -0.284665 0.679821 0.524653 0.248073 0.313589 -0.373776 0.838879 0.209036 0.556671 0.302498 0.735386 0.686599 0.835322 -0.285382 -0.00939316 -0.095709 -0.132793 0.55543 -0.0399907 -0.436602 0.27836 0.443653 0.950322 0.187564 0.673419 0.735914 0.821229 -0.157509 0.122967 0.0064021 0.90252 0.213344 -0.382187 0.184362 0.266947 0.415364 0.947196 0.484138 0.846241 -0.159329 0.390515 0.335511 -0.221728 0.0240877 0.00811698 -0.210759 -0.135552 0.224502 0.818458 0.372571 0.901721 -0.238774 0.116717 -0.651434 0.116635 0.718023 -0.0200388 0.323336 0.252519 -0.0773361 0.744141 0.447417 0.592637 0.394603 0.021613 0.684345 0.62688 -0.343619 0.946238 0.0847335 -0.038572 -0.0145322 0.864818 -0.36762 0.434472 0.618233 0.237821 0.38841 0.728012 0.20907 0.000720813 -0.155807 -0.00238749 0.0922926 0.97858 0.220917 0.256332 -0.560692 0.461211 0.498279 0.681437 -0.19554 0.566284 0.650709 -0.0645926 -0.041825 0.297862 0.519056 -0.466955 0.208013 0.546263 0.099446 0.940144 0.278033 0.894764 -0.592893 0.877136 -0.381102 0.486371 0.142777 0.707936 0.752945 0.827235 -0.296236 0.666729 -0.156804 0.651918 -0.253642 0.536942 0.30857 0.83848 0.565133 0.331347 0.727563 0.878602 -0.65261 0.477895 -0.217456 0.139574 0.506418 -0.0609819 0.658944 -0.299258 0.21438 0.546953 0.0595536 0.173169 0.283186 0.185476 -0.488932 0.671078 0.890084 -0.699623 0.214174 0.196665 0.662967 -0.371169 -0.105478 0.223584 -0.228847 0.918666 0.37855 0.837883 0.0869388 0.244879 0.03816 -0.319393 0.125515 0.670511 0.272494 0.702908 -0.246999 0.617276 -0.398637 0.528703 0.560425 0.723248 -0.523528 0.609872 -0.551326 -0.652423 0.295515 0.492009 -0.187494 0.484859 0.574635 0.448584 0.0184478 -0.265799 0.229094 -0.238743 -0.456818 0.600406 0.0194322 0.487972 0.582472 0.690862 -0.359182 0.43182 0.075487 0.650465 0.404746 0.937301 -0.412019 -0.192052 0.21826 0.497108 -0.224019 -0.458692 0.336062 0.580198 0.119752 0.450143 0.058046 0.366387 -0.542811 0.914073 -0.0210432 0.76765 0.497815 0.127279 0.576538 0.775151 -0.446675 -0.533975 -0.145896 0.782815 0.535386 0.34296 0.084212 0.786186 0.601744 0.0206922 0.421103 0.190725 0.515511 0.208909 0.182554 0.383884 0.660862 0.855647 0.142101 -0.420459 0.724381 0.965448 0.536579 0.455959 0.358138 0.850539 0.209299 0.156095 0.805704 -0.595256 -0.156675 0.26678 0.0940697 0.797318 0.341449 0.25831 0.661633 0.628916 -0.518807 0.935719 -0.0298995 0.773444 0.870822 -0.235539 0.751141 0.701176 0.188024 0.565812 0.0656894 0.390099 -0.157004 0.344009 0.911594 0.294079 0.183782 0.923177 0.26074 -0.602223 0.215506 0.883566 0.199782 0.0529213 0.952314 0.495699 -0.0501572 0.81498 -0.0408912 0.11638 -0.58329 0.638342 0.786868 0.596709 0.584498 0.444802 0.604593 0.491186 0.639988 -0.00852912 -0.105967 0.0757086 0.957344 0.458755 0.476041 0.566846 0.136942 0.119241 0.292803 0.856014 0.648025 0.858372 0.828772 0.0228082 0.178595 0.373943 -0.531029 0.284849 0.575879 0.166735 0.028548 0.39437 -0.336022 0.529623 -0.0245301 0.949844 0.367648 0.974446 -0.0285769 0.797237 0.135118 0.670215 0.727567 0.952219 0.309997 0.448159 -0.167437 0.664378 0.176424 0.711717 0.309228 -0.463115 0.514387 0.581842 0.110068 0.497359 0.0333994 0.16977 0.141027 0.198436 0.00540289 -0.341839 0.124182 0.915569 0.193412 0.0657858 0.734524 0.843034 0.112135 0.359929 -0.581432 0.882706 -0.58231 0.876656 0.164502 -0.415169 0.935906 0.879356 0.3025 0.756643 0.0934681 0.48074 -0.187889 0.649116 0.460643 0.977496 -0.0735148 0.355178 0.409799 -0.41735 0.0355283 0.286973 0.0625056 0.590639 0.174744 0.834943 0.388456 -0.473389 0.719102 -0.666294 0.0264934 0.500473 -0.414709 0.214227 0.725433 0.916135 0.00441385 0.454968 0.673653 0.274918 -0.456652 0.118972 0.869326 -0.395934 -0.120787 0.0211161 0.755685 0.0703761 0.406271 0.0388761 0.359742 0.873362 0.418051 0.0705483 0.243743 0.467518 -0.131025 0.161607 0.559746 0.731337 0.0765278 0.887795 -0.606835 0.470717 -0.505921 0.32909 0.445455 0.757009 0.465904 0.395056 0.855618 0.5102 -0.11243 0.864861 0.589839 0.84275 0.352496 0.47622 0.656403 0.527616 0.773774 -0.316924 -0.175636 0.759221 0.220229 0.203843 0.354136 0.671369 -0.141561 0.815624 0.276468 -0.185994 0.424099 0.769454 0.548709 0.121755 0.464505 0.555277 0.374335 0.77371 -0.398295 0.539774 -0.456146 0.232055 0.645416 -0.297431 0.487547 0.743766 0.182674 0.317548 -0.3619 0.364125 -0.395008 0.7156 0.866746 0.557731 0.146392 0.797474 -0.224611 -0.187048 0.425473 0.238047 -0.297576 0.716097 0.0909902 0.359838 0.698414 -0.0749763 0.409073 -0.473486 0.294612 0.370127 0.409185 0.450608 0.0231877 0.307027 -0.452118 0.372981 0.569988 0.273061 -0.104431 0.928521 0.975284 -0.17108 0.668255 0.740025 0.531304 0.0648077 0.188117 0.789288 0.159814 0.962467 0.258035 0.0665717 -0.589618 0.768017 -0.281096 0.328193 -0.0321723 0.769938 0.637368 0.688046 -0.26463 0.709077 -0.216081 0.347967 -0.0435602 0.257768 0.158861 0.761173 0.746466 0.244508 0.607526 -0.0523969 -0.138462 0.581208 -0.527515 0.330713 0.746378 0.484544 -0.081301 -0.368533 -0.12564 0.86877 0.429341 -0.193383 0.293089 -0.415868 0.0708169 0.0424653 0.635633 -0.0290819 -0.275913 0.534371 0.122826 0.146722 0.454482 -0.449611 -0.539528 0.661542 -0.321574 0.282516 -0.545381 -0.262469 -0.174709 -0.191669 0.0592379 -0.0328274 0.342457 0.666968 0.032823 0.240674 -0.0190423 0.10132 0.690167 0.221147 -0.323623 0.717156 -0.252956 0.145246 -0.0145357 0.582197 0.142377 0.233167 0.674509 0.00923959 0.498407 -0.537024 0.639068 -0.738995 -0.398452 0.842916 -0.562458 0.0500541 0.50196 0.649255 -0.599516 0.712698 0.758162 -0.023118 0.323204 0.255718 0.438556 -0.545407 0.276848 0.279679 0.185688 -0.275919 0.435915 0.731318 -0.0403302 0.114968 0.0780233 0.913694 0.101186 0.525919 0.158893 0.0226549 -0.282011 0.879718 0.496456 0.647493 -0.638165 -0.411807 -0.626127 -0.286123 -0.0746901 0.883891 0.353467 0.256157 0.474445 0.0942985 0.117537 0.636842 -0.634161 0.747864 -0.157486 0.366213 -0.00361056 -0.413127 0.298712 0.0331766 0.21437 0.77846 0.00936518 -0.760564 -0.0869428 -0.630258 -0.0491246 -0.118234 -0.15231 -0.591441 -0.385923 0.511208 0.0427913 0.0299492 -0.145507 0.0123531 -0.298137 0.184719 -0.0115378 0.183467 -0.510062 -0.293547 0.244976 0.0628725 -0.425613 0.549148 0.732467 -0.234713 -0.227282 0.418078 0.110957 -0.330219 -0.179772 0.513741 -0.0535914 0.279378 0.114828 -0.503586 -0.324515 -0.322872 0.362407 0.378429 -0.15546 0.677943 0.298423 -0.47305 0.689079 -0.64711 -0.519018 0.31262 -0.0124263 0.720153 0.571958 -0.0504052 0.0904559 0.287576 0.424957 0.534813 -0.067152 0.535735 -0.200851 -0.5168 0.036941 0.515909 -0.717858 -0.454671 -0.474057 0.499776 0.289689 0.311991 0.758032 0.523649 -0.473638 0.655916 -0.461079 0.789827 -0.561378 0.256783 0.646475 0.555282 -0.583421 -0.851285 -0.246079 -0.146786 0.455318 0.640119 0.0530376 0.0478452 -0.192775 